0.28539651436528457,2.200327756665204,6.765746798214716,-7.4424795971183615,-6.7883616238697915,-0.10300049752846793,-14.41158652331656,-2.5177781020088377,0.6770102041755108,-3.18532037055208,-8.571188689900344,
0.42089946694937264,-0.7105766495796894,3.9193995167481552,1.229958671827296,1.62622264985656,1.4086180224298543,-0.11825031400623952,2.9239494659869028,-8.988199941838639,0.09932752688039577,-2.8456302284746746,
-0.40609798716554524,-0.057195006955901254,-0.05955827524879212,-0.006015341254401774,-0.05081935796103327,-0.974714239649586,-0.0043821453423036885,-0.20093197003975005,-0.1705211385204977,1.2245993999123936,-0.0029856105669749055,
0.27102416223130366,-0.0053687433207040385,0.19773048558638542,0.07257983566057538,0.06710037093343899,-2.434222782279656,-0.08419522031717633,-0.13845025247824064,6.204579843235987,3.987825863145974,-0.10267066145245966,
-0.3080073894097659,-0.24144646045862878,1.7613312924480145,-0.12277044991239594,-0.23996085817306187,-2.8615508484050975,-0.010218368655596565,-0.037812260268079476,1.0227906945501493,0.013142044168493463,1.9750339984978835,
0.01248374915957251,-5.181187439268061,0.7575394449934764,0.3136739161977255,-0.13577215279780663,-4.006575876092009,0.032700140717779734,-6.549292745091145,4.8234525669178785,0.3076128022858014,-0.7214068103046656,
0.49650430542071355,-3.612791220700209,-3.1492239659442576,8.019366165610332,13.994227102242204,0.23897754327035547,-14.237982559810222,4.385440317781547,-0.39184103598540354,-1.3542984839248737,5.426504704710896,
-0.05583239583378119,0.2854631809705699,-0.04914048277402572,0.20608704003610356,-0.4499226944999788,0.30192391110341044,-0.4999057733811916,-0.467790740997019,-0.08333607049119385,-0.32909941451958513,-0.07072343424929028,
break
3.165798733389849,
-0.5801625809776086,
0.6484919038195218,
-1.1438056257757687,
0.6856620634428466,
0.020385838118212676,
3.4061078803977067,
0.5242269560787344,
0.003166305195726096,
-0.0032629544852180313,
-0.7678457074676324,

