-0.35847805211691997,-0.3300759821754448,-0.5360454794941516,0.03855140812949121,0.21699692723214872,-0.3545580171748983,-0.2646842389004368,0.14642996259286212,0.42728169902940116,0.2931572377725014,-0.2479601100547317,0.027165349060417454,0.4774123932551635,0.9288794456821848,0.22180030667418102,-0.3229231025653661,
0.3760782360877478,-0.5802069401694182,0.33946522948389174,-0.07553019552916343,0.15872923482820975,0.09432646652994035,-0.9866090730131101,0.047433007622400464,0.022714139548289946,0.26038063257017424,0.26403088479558817,-0.08895365709073756,-0.09934251419711554,-0.10634384146688161,-0.14367463603788497,-0.3332693428923813,
0.27581660436249233,0.17399760107918824,-0.014287109318709853,0.2915368592481916,-0.4886560448458374,-0.3482427673240698,-0.07950640070557989,0.09790134474793234,-0.2000111919511823,0.09445811637377534,-0.08619699576297622,-0.43483902714115946,-0.22940249660255332,-0.25517723791518376,-0.2627172881423264,-7.256415224892802E-4,
0.4458500363489324,-0.09470375067282512,-0.17410050827642226,0.07471519234663358,0.33580687174241697,0.25053414409113994,-0.24704217895814076,-0.35398124461683866,0.25681434305726164,-0.10768390237800961,-0.4514137752138887,0.224375126427232,-0.5920613430697832,-0.0490105770369817,-0.04750578630976755,-0.06970504460728728,
-0.48297218594467994,-0.19318237773541963,-0.17849213584869172,-0.4049583013071065,0.010533968331619792,-0.11004243037958435,-0.004802754024937304,0.5692832181846428,0.09506058331963001,0.04371583877708544,-0.24976733964231426,0.27362472033696217,0.038602973911662015,-0.07206454978178799,-0.1430391910578385,-0.18207188819998535,
-0.1641026093615895,-0.040809907396113544,0.11159901853010797,0.5981198858448046,-0.20929580792120603,0.26586591838810564,0.18336271008785546,0.39763758186713,-0.6068257713615638,0.24173348615021198,-0.40467244490137916,-0.3293319084449511,0.04421952383397146,-0.02918161058404624,-0.3378815109153256,-0.5900813072860275,
0.2705505690122162,-0.17624327176931076,0.32180199577876306,-0.294686609037575,0.280986487316842,0.4619313519513967,1.0325226724713925,0.3718521933267426,0.32360151186217534,-0.5133543545462216,0.3332001733987435,-0.021094301774697528,-0.12009508537783814,-0.3118235462397082,0.13660478473108456,0.3425237866310589,
-0.13398611298925245,-0.42785120228617146,0.43165195270743406,-0.4966331618558685,0.005127398788904225,-0.13406160458219274,0.0747366153082829,0.36251686099921954,0.27755848108408687,-0.13143489373677064,-0.14429440535878513,-0.21473891987098792,0.400162782521139,-0.10213533419115328,-0.21271705855001244,0.3484908948386467,
break
1.237521345160977,
-0.06727497764131732,
-0.3296772529271989,
0.1228591663101466,
-0.05079306966999271,
-0.2862085694017555,
-0.3856555405549961,
-0.135293311743675,
0.013347736562578625,
0.24025339573536716,
-0.13145299780871883,
-0.04307153720438889,
0.1915078128944026,
0.49299697005767446,
0.08872190017780524,
-0.11953211784680773,

